<?xml version="1.0"?>
<opencv_storage>
<my_svm type_id="opencv-ml-svm">
  <svm_type>C_SVC</svm_type>
  <kernel><type>LINEAR</type></kernel>
  <C>1.0000000000000000e-002</C>
  <term_criteria><epsilon>1.1920928955078125e-007</epsilon>
    <iterations>1000</iterations></term_criteria>
  <var_all>3780</var_all>
  <var_count>3780</var_count>
  <class_count>2</class_count>
  <class_labels type_id="opencv-matrix">
    <rows>1</rows>
    <cols>2</cols>
    <dt>i</dt>
    <data>
      -1 1</data></class_labels>
  <sv_total>1</sv_total>
  <support_vectors>
    <_>
      -1.52912838e-002 6.20705485e-002 3.75817195e-002 -3.34438644e-002
      8.39322135e-002 4.78054993e-002 3.18880975e-002 2.02635881e-002
      1.21128811e-002 7.85847008e-003 4.18244079e-002 6.27394393e-003
      -3.09787691e-002 1.21625409e-001 3.49224322e-002 -1.03173254e-003
      3.47583592e-002 3.88886295e-002 3.92166153e-002 5.52752912e-002
      4.26685549e-002 -1.49656413e-002 2.32580164e-003 5.99335581e-002
      -1.35393068e-003 -1.91341247e-002 9.65965725e-003 1.05943065e-003
      4.57484834e-003 8.83953646e-003 -1.37957716e-002 -1.30632799e-002
      3.35090496e-002 7.50033767e-004 -9.94602498e-003 -1.21061073e-003
      4.54231799e-002 3.99517305e-002 3.14768553e-002 9.46389604e-003
      4.09820899e-002 -1.81937087e-002 -3.30473222e-002 4.05451432e-002
      4.39033173e-002 3.06216478e-002 -4.62610945e-002 -2.43210290e-002
      4.22875769e-002 4.80358489e-002 -3.40802199e-003 1.95968430e-002
      4.36115190e-002 1.47719365e-002 5.02830297e-002 4.14716452e-002
      3.20912488e-002 3.34283360e-003 -4.24981155e-002 -1.09524550e-002
      -3.44769694e-002 1.46800494e-002 2.76203360e-002 1.20995259e-002
      -2.62352396e-002 1.03669730e-003 2.27531008e-002 -1.86883230e-002
      2.01416854e-002 2.83195707e-003 4.12259027e-002 3.92872356e-002
      3.30684148e-002 1.99111588e-002 -3.44146672e-003 2.38925889e-002
      1.01455366e-002 -4.10862155e-002 -1.14186257e-002 8.66627134e-003
      2.60965917e-002 -1.65986177e-003 2.43374966e-002 9.76219121e-003
      9.59390253e-002 1.01407193e-001 -1.83375785e-003 -2.64506903e-003
      2.51347907e-002 1.53985899e-002 2.49690451e-002 2.86364425e-002
      -1.20759672e-002 -1.17516494e-003 -9.65316873e-003
      -2.17646011e-003 -2.41185892e-002 2.39704885e-002 -1.85126648e-003
      6.29538763e-003 -2.93808468e-002 -8.37445632e-003 5.97523153e-002
      -3.30202864e-003 3.07639632e-002 3.02267559e-002 1.18833957e-002
      8.78039468e-003 1.12128621e-002 2.45590648e-003 -1.94903873e-002
      3.69205438e-002 6.17912076e-002 -7.06243366e-002 -7.66702816e-002
      -2.61283736e-003 -1.68561246e-002 2.02055369e-002 -1.45540377e-002
      6.26615388e-003 1.41549837e-002 7.28728473e-002 -3.22407521e-002
      3.25717442e-002 1.01919519e-003 -3.77261126e-003 1.41160879e-002
      -4.49961275e-002 -1.75646599e-002 3.13376747e-002 9.80615150e-003
      -1.27538471e-002 -5.33342920e-002 1.40263401e-002 1.79758761e-002
      2.11794451e-002 6.88717421e-003 -1.78978853e-002 2.83480622e-002
      2.98514050e-002 2.17453055e-002 -6.13865349e-003 1.69238746e-002
      4.00528535e-002 -2.81295413e-003 -3.58635522e-002 7.51035102e-003
      -2.76187062e-003 1.53572233e-002 -9.41296201e-003 -1.21667050e-002
      -6.08014427e-002 -2.20885277e-002 6.15566969e-003 3.48009914e-002
      5.46877272e-002 4.28190492e-002 1.22135624e-001 6.13903143e-002
      4.92263734e-002 2.01712362e-002 1.91696789e-002 8.63821432e-003
      -2.15088744e-002 -3.50304530e-003 -2.66628936e-002
      -4.26832885e-002 3.82334203e-003 -8.07909891e-002 -5.36217578e-002
      -9.24181007e-003 2.54235268e-002 3.13085765e-002 4.04488295e-002
      3.09384968e-002 4.27367315e-002 3.49710099e-002 -3.61381322e-002
      -2.14944985e-002 4.17105742e-002 -3.67045999e-002 1.22556612e-002
      2.43882369e-002 1.59040857e-002 4.75735441e-002 -3.83537710e-002
      -5.36992922e-002 2.03557424e-002 -2.42895782e-002 2.95088682e-002
      -7.80166872e-003 2.33029872e-002 3.53104472e-002 9.10245031e-002
      1.39018781e-002 5.63803781e-003 7.27095380e-002 2.27612164e-002
      -2.65247226e-002 -3.31118219e-002 -6.00213669e-002
      -3.11203245e-002 -9.42862108e-002 -5.63733503e-002
      -1.07894115e-001 -8.72028992e-002 -4.64771092e-002
      -9.96002229e-004 -1.31449513e-002 -8.99392087e-003 2.77391579e-002
      -3.61088663e-002 5.00040725e-002 -4.71866205e-002 -6.27375767e-003
      2.61911098e-002 -3.93752344e-002 -3.17011476e-002 -1.05104297e-002
      1.08054746e-002 3.66455130e-002 4.16084286e-003 -1.82079524e-002
      3.44467536e-002 -4.80663143e-002 -2.25668550e-002 -4.58747894e-002
      -2.83517949e-002 1.08046355e-002 3.92411016e-002 4.91120517e-002
      -1.81244016e-002 2.74834391e-002 -1.94187164e-002 -1.01573087e-001
      -8.68806764e-002 -7.86186531e-002 -1.70627162e-002
      -7.15811327e-002 -4.28877324e-002 -9.60007831e-002
      -6.55920208e-002 -7.95110539e-002 -2.89551727e-002
      -6.39174804e-002 -5.44941239e-002 1.90429389e-002 -6.46430328e-002
      4.68788408e-002 -6.22384474e-002 1.97115336e-002 -6.33265008e-004
      5.25261601e-003 4.36178818e-002 2.26663537e-002 2.76618153e-002
      -8.81469715e-003 7.74283186e-002 3.10728000e-003 -2.89350580e-002
      -1.80376507e-002 -3.14919055e-002 1.55951148e-002 -2.06649657e-002
      1.55239953e-002 1.70047525e-002 5.61252683e-002 1.79506931e-003
      1.69973522e-002 -1.39014097e-002 5.77852316e-002 4.04094607e-002
      7.84447510e-003 6.84958417e-003 -1.86382867e-002 3.63469347e-002
      -1.54878842e-002 2.55006123e-002 1.27213513e-002 -1.39402775e-002
      -1.27767017e-002 -3.69774140e-002 -2.87134256e-002
      -2.34749820e-002 6.16268516e-002 -1.87082533e-002 2.04236321e-002
      -2.03403160e-002 1.73363206e-003 4.17516045e-002 2.05228552e-002
      1.39117055e-002 -1.19622992e-002 4.48367931e-002 -2.18412895e-002
      1.37350475e-002 1.77869480e-002 3.85473222e-002 -1.49043361e-002
      -2.42107771e-002 3.53248417e-002 4.41836566e-002 2.60861106e-002
      -2.39305869e-002 1.09276706e-002 2.99982540e-002 4.39406969e-002
      3.75354774e-002 2.07363684e-002 2.47139744e-002 1.11806067e-002
      3.33495624e-002 -5.86304348e-003 3.08516175e-002 3.36311944e-002
      -7.26580911e-004 -2.77577918e-002 -1.81552079e-002
      -3.79121699e-003 1.68247838e-002 1.30698970e-002 -4.08014953e-002
      -2.85531883e-003 2.24588923e-002 5.26111238e-002 2.53700949e-002
      1.48072708e-002 -2.40709097e-003 -3.55085661e-003 -5.20199444e-003
      -1.29418401e-002 -4.73634526e-003 1.45750316e-002 4.81899418e-002
      1.04253902e-003 2.47880798e-002 2.21982747e-002 6.15762779e-003
      8.36801529e-003 4.23714928e-002 4.14226316e-002 4.24336344e-002
      2.95308279e-003 1.21288393e-002 -6.92339428e-003 -2.85433121e-002
      -2.13826131e-002 -1.42261852e-002 -3.01535241e-002
      -1.94133595e-002 1.78997833e-002 3.72220017e-002 1.64898969e-002
      8.86219740e-003 -2.51849461e-002 -1.10020181e-002 -5.19253500e-003
      6.91388594e-003 1.33869695e-002 4.18356955e-002 4.50638756e-002
      5.77974878e-003 7.72778317e-003 -2.45093703e-002 9.86262783e-003
      -4.57467288e-002 -4.58220132e-002 -6.83042966e-003 4.15484160e-002
      5.74202277e-002 1.69282500e-002 1.77031977e-003 6.79706782e-003
      5.77735789e-002 9.85594653e-003 2.34831758e-002 2.30483450e-002
      5.72539605e-002 5.58426678e-002 3.43053006e-002 2.33788490e-002
      -2.17656754e-002 -4.95437756e-002 -7.50906318e-002
      -7.89127499e-002 -4.29135226e-002 1.83109492e-002 -9.43137705e-003
      -2.00248919e-002 -4.03315686e-002 -1.78722721e-002 2.23168340e-002
      -3.88540030e-002 -3.71661433e-003 3.20955142e-002 1.88997276e-002
      3.55795585e-002 -1.24865277e-002 -3.08793760e-003 1.01612285e-002
      -1.32110929e-002 -1.20898318e-002 -4.12113145e-002
      -7.36376178e-003 3.85319367e-002 1.13703217e-003 2.50877365e-002
      1.46750053e-002 4.22505476e-002 5.42286113e-002 2.46178489e-002
      3.45030390e-002 1.94695480e-002 3.54787111e-002 -4.87832390e-002
      -3.23214941e-002 -4.70043831e-002 -2.59285923e-002 3.59501224e-003
      5.34739532e-003 -5.72129898e-002 6.94781775e-003 -1.53695950e-002
      -2.20485255e-002 4.21378529e-003 -6.35210983e-003 1.22048026e-002
      2.86267176e-002 4.25621355e-003 2.13436149e-002 -2.10016388e-002
      -1.23091266e-002 1.51726082e-002 -7.88810104e-003 -3.39548811e-002
      1.85436495e-002 -4.32138219e-002 -5.90837095e-003 -3.53872553e-002
      1.44477654e-002 1.77947979e-003 2.93623507e-002 1.92196835e-002
      2.12727953e-002 4.42041978e-002 1.64187308e-002 7.58190081e-002
      3.59398685e-002 1.74455792e-002 4.14081067e-002 -1.77332684e-002
      -4.14253771e-002 -3.76750007e-002 1.55284153e-002 -5.78169636e-002
      -6.18475005e-002 -2.21721847e-002 -3.90199907e-002
      -2.33758576e-002 4.11211774e-002 7.03332294e-003 -1.20747201e-002
      3.87216844e-002 -2.40187952e-003 1.87593587e-002 9.78575554e-003
      2.21253075e-002 2.46213134e-002 -4.77620251e-002 -2.43939236e-002
      -2.62692366e-002 2.66733523e-002 5.55993407e-004 -1.72655110e-003
      -1.82978939e-002 -1.87577326e-002 -4.04230766e-002 4.57254015e-002
      2.68115401e-002 -1.77206763e-003 9.96171162e-002 4.70509082e-002
      8.80490243e-002 3.01029943e-002 5.01497202e-002 5.45041002e-002
      -6.08694814e-002 -2.65842006e-002 -4.40525822e-002
      -1.12528121e-002 -4.09922935e-002 -8.31663385e-002
      -7.54117295e-002 -4.88942116e-002 -6.67312369e-002 4.74361405e-002
      6.70773350e-003 -3.51484790e-002 5.52194975e-002 -3.27470936e-002
      3.53359394e-002 -3.86572778e-002 9.57699586e-003 7.88399503e-002
      3.04600336e-002 1.76632125e-002 3.73054901e-003 8.81072320e-003
      -2.43879389e-002 1.85828153e-002 -5.13549428e-003 -1.31579189e-004
      -1.04312431e-002 -2.25393493e-002 -1.48440413e-002
      -2.05707885e-002 2.27791481e-002 -1.09483220e-003 3.38480547e-002
      -2.42493916e-002 7.19607063e-003 -5.04343249e-002 3.29218134e-002
      5.06451912e-003 -3.81775238e-002 8.48904997e-003 -5.70280850e-002
      6.73910463e-003 -4.01467681e-002 -4.33853565e-004 -7.70215876e-003
      1.06537454e-002 -4.31632511e-002 -4.75940183e-002 -1.41503718e-002
      -1.95168965e-002 -4.18240242e-002 -3.72573808e-002
      -1.83592141e-002 -2.80081853e-002 6.97786966e-003 2.29894035e-002
      4.44006175e-002 2.62557063e-002 1.64858811e-002 2.14784779e-002
      -4.58270079e-003 1.83180142e-002 -1.58489402e-002 -4.92527783e-002
      -7.26022478e-003 7.47795869e-003 8.95355362e-003 4.19227546e-003
      1.03229871e-002 -2.65618730e-002 -1.75753403e-002 -3.21776569e-002
      6.26626611e-003 9.58066620e-003 3.19787972e-002 -1.45161003e-002
      -2.53707008e-003 -2.36720341e-004 6.79995678e-003 2.32985779e-003
      -1.76645890e-002 3.69735924e-003 -2.77196243e-002 -1.41530400e-002
      -5.22606894e-002 -1.82612631e-002 -8.96670681e-004
      -1.37042962e-002 -2.53083035e-002 -3.76425013e-002
      -3.42687033e-002 5.76494494e-003 -1.12726455e-004 -2.67247073e-002
      9.86223109e-003 6.32848265e-003 -1.15373880e-002 -3.36468890e-002
      -1.05917864e-002 2.79651629e-003 -2.67122895e-003 -3.49293812e-003
      1.18866982e-003 2.48625670e-002 2.78425310e-003 4.08446528e-002
      8.52999371e-003 6.04904396e-003 2.76614279e-002 5.38625475e-003
      5.49197942e-003 -5.80828786e-002 -1.55645572e-002 -3.10254358e-002
      -1.75297391e-002 -3.40779833e-002 1.37089053e-003 1.60794668e-002
      -2.42655054e-002 1.49635421e-002 -2.60992851e-002 2.18024924e-002
      -2.92609110e-002 2.60164272e-002 -2.39506885e-002 3.59291025e-002
      4.95515531e-003 -7.03184912e-003 -6.89967256e-003 -2.69900132e-002
      -2.30674576e-002 -5.53005897e-002 5.42882131e-003 -1.12885265e-002
      -2.03067772e-002 -5.49657783e-003 -2.13876972e-003 2.08290648e-002
      3.12735140e-003 5.74263334e-002 -2.18410604e-002 1.99075490e-002
      3.31677273e-002 -1.51476208e-002 -8.21869913e-003 -5.48845492e-002
      -3.85171473e-002 -3.88174094e-002 1.80252716e-002 -7.61822313e-002
      -4.98183072e-002 -7.90825188e-002 -9.83019080e-003 1.74117498e-002
      -3.30415741e-002 3.15824449e-002 1.48599967e-002 -3.21056019e-003
      -1.62546150e-002 1.86493131e-003 -5.37091307e-002 -7.07002683e-003
      4.36975015e-003 -2.36609410e-002 -9.58031788e-003 -2.84389667e-002
      4.87823114e-002 -1.18264277e-002 3.71129066e-002 1.91815048e-002
      3.76639795e-003 -1.08310813e-002 9.68310516e-004 -1.98285766e-002
      -1.09591531e-002 5.87428398e-002 -3.13172527e-002 6.69786334e-002
      -1.87125467e-002 -5.85649861e-003 -1.64101962e-002
      -4.06863950e-002 -4.23754705e-003 -3.17753516e-002
      -1.81416962e-002 -3.28064263e-002 -2.74118911e-002
      -4.97095138e-002 -1.43638812e-002 -1.91949878e-003
      -2.94750389e-002 2.16144323e-002 -1.63069461e-002 3.95701118e-002
      -2.49103643e-002 2.50270888e-002 -2.65168212e-002 4.83262399e-003
      3.00929677e-002 -1.78951006e-002 -2.79386062e-002 -1.06273163e-002
      -4.35359217e-002 -6.12569824e-002 6.52697757e-002 8.64247151e-004
      3.22728269e-002 6.75281212e-002 4.01744656e-002 3.58384028e-002
      2.32613888e-002 1.76584106e-002 -8.17872758e-004 6.97476864e-002
      4.93993312e-002 7.62081444e-002 -1.09750014e-002 1.84383709e-002
      5.05277440e-002 8.55114020e-004 -9.78371780e-003 -2.41504740e-002
      1.95703581e-002 -1.57957599e-002 1.62488762e-002 -1.10057434e-002
      -3.85216367e-003 4.22156304e-002 -2.01698933e-002 2.89846379e-002
      6.63053105e-003 2.98152957e-002 -1.35887479e-002 1.80667117e-002
      -7.85954762e-003 1.53270632e-003 1.12477196e-002 2.75329743e-002
      4.10284065e-002 -1.56775825e-002 -5.54500427e-003 1.99951194e-002
      4.71325852e-002 3.44792418e-002 3.94594334e-002 5.63860871e-002
      6.94194958e-002 5.48916981e-002 3.56329568e-002 1.29565950e-002
      4.34312746e-002 7.68118948e-002 -5.10787666e-002 -1.06482459e-002
      3.26002277e-002 1.22264400e-002 2.63011619e-003 -3.67293954e-002
      -1.16202142e-002 1.19244086e-003 1.75015572e-002 -1.06294360e-002
      -7.02374130e-002 2.43588779e-002 2.71522775e-002 -7.52957072e-003
      -2.70704832e-003 -5.60231544e-002 -1.55565329e-004 1.73912793e-002
      3.71458009e-002 3.10817361e-002 3.91356982e-002 3.70510072e-002
      -9.86203551e-003 2.34341007e-002 3.54270935e-002 8.62484518e-003
      2.93970034e-002 1.50431851e-002 -1.81432534e-002 -3.22655612e-003
      -1.83152240e-002 -1.10799503e-002 -2.94792000e-002 1.85248461e-002
      2.42678449e-002 7.61554297e-003 -2.04474106e-002 -3.16300876e-002
      2.03631576e-002 7.57694170e-002 3.39050591e-002 4.56301644e-002
      2.55117356e-003 -1.41533138e-002 1.05132936e-002 -3.40488516e-002
      -2.58734226e-002 3.14153382e-003 -3.33434679e-002 -1.54581200e-003
      -5.01720756e-002 -4.57352400e-002 -4.41836640e-002
      -3.85136753e-002 2.72089709e-002 1.06194392e-002 3.47977802e-002
      -1.74180381e-002 -2.41695028e-002 -6.39126217e-003 1.57630425e-002
      1.48423100e-002 2.13642251e-002 -2.57364362e-002 -1.21321063e-002
      5.35157509e-003 -5.90418056e-002 -1.59813203e-002 -8.34743306e-003
      -4.96289972e-003 -2.51445007e-002 -3.56797427e-002
      -2.13354044e-002 -5.80922104e-002 2.17148494e-002 -3.33176181e-002
      -2.88599283e-002 -3.34491953e-002 -1.88071392e-002 7.34481309e-003
      2.73027588e-002 -2.07204353e-002 -3.86011004e-002 -2.08817255e-002
      -5.96574843e-002 -1.09188640e-002 -5.35156066e-003
      -5.92146348e-003 -7.61813205e-003 4.46968991e-003 -9.02305450e-003
      -9.50917695e-003 1.29076876e-002 -4.74956222e-002 -2.94375196e-002
      -9.45048779e-003 1.31275447e-003 -3.50697823e-002 -1.03693642e-002
      8.01565871e-003 6.12609508e-003 2.40588635e-002 -1.69236325e-002
      2.44126306e-003 5.18867886e-003 2.17952579e-003 -2.36193240e-002
      4.56450880e-002 -1.34881092e-002 -1.82760525e-002 5.74332252e-002
      -3.48722413e-002 -2.63161701e-003 -1.52874375e-002 1.52996834e-002
      2.05912697e-003 1.50510548e-002 -1.32974889e-002 -9.79536399e-003
      6.19261973e-002 -2.23943293e-002 1.27484091e-003 1.53106907e-002
      4.72152084e-002 3.41059528e-002 7.97920953e-003 -2.61953846e-003
      1.02573698e-002 1.45651109e-003 -4.25030179e-002 -5.93080232e-003
      -1.70230549e-002 -4.06214483e-002 -2.65595634e-002 2.41685081e-002
      -1.91423087e-003 2.73036920e-002 4.20462601e-002 -2.93638874e-002
      5.40676294e-003 5.99602610e-003 3.47866751e-002 1.02694444e-002
      4.54801209e-002 -9.71363392e-003 -4.36158925e-002 4.84310500e-002
      -4.43708487e-002 -1.81402843e-002 -2.63909716e-002
      -3.88029031e-002 -2.77289376e-003 -7.57481065e-003 1.80632733e-002
      -3.19306627e-002 5.52113727e-002 2.36492250e-002 -1.31044257e-003
      4.29836437e-002 5.02627008e-002 1.83457080e-002 3.69639159e-003
      3.72594595e-003 -4.08267137e-003 -9.01651941e-003 -7.35482052e-002
      -1.68031212e-002 -1.45251788e-002 -2.29828595e-003 1.38214305e-002
      7.38247558e-002 -1.03894938e-002 2.44600885e-002 3.40233706e-002
      3.37801948e-002 3.60353403e-002 -1.80323161e-002 9.04870685e-003
      8.20291787e-003 5.08041158e-002 -6.75841840e-003 -4.56700101e-002
      2.27275789e-002 -5.49707115e-002 -4.77655753e-002 -2.53908113e-002
      -8.57084431e-003 -1.59910992e-002 2.65556742e-002 -4.23402525e-002
      -4.27022390e-002 2.39965375e-004 8.06851778e-003 9.23880003e-003
      -1.11812521e-002 -2.96136811e-002 -2.52880510e-002
      -3.78342755e-002 -5.09611284e-003 3.45455632e-002 2.76124272e-002
      1.07563054e-002 -1.02682933e-002 8.33175890e-003 7.50637287e-003
      -1.32211875e-002 7.07984120e-002 -3.58434692e-002 3.07264887e-002
      1.13325603e-002 -1.23529788e-002 2.19513196e-002 -1.31142391e-002
      3.59078236e-002 2.18484830e-002 3.50432061e-002 -3.14550325e-002
      -6.90094009e-002 -3.55874263e-002 -1.95979886e-002
      -1.74575187e-002 -4.33333665e-002 -6.43549040e-002
      -6.27368018e-002 -5.39536811e-002 1.46362633e-002 -3.08048483e-002
      -2.48982245e-003 -2.02348754e-002 2.15293467e-002 -2.28649341e-002
      1.11603104e-002 -3.33365053e-002 -2.13295072e-002 -4.99503016e-002
      3.06891128e-002 2.34794989e-002 3.10032591e-002 4.10177298e-002
      -3.82148921e-002 1.64070539e-002 5.09048738e-002 2.16960702e-002
      -3.25123407e-002 -1.50069380e-002 2.25225873e-002 1.80002470e-002
      4.68250513e-002 1.01163797e-002 3.76900338e-004 4.86838212e-003
      8.00109992e-004 -4.21011783e-002 -1.58974016e-003 -1.40521093e-003
      -2.25599520e-002 -3.10691399e-003 -3.74480300e-002 2.15865411e-002
      3.23156342e-002 -3.19216549e-002 -3.18099596e-002 3.70430462e-002
      -4.26771268e-002 -4.04919945e-002 -2.91794445e-002
      -3.46812196e-002 -2.73390654e-002 -8.37867633e-002
      -4.24016453e-002 4.55504004e-003 -3.37872840e-002 -2.00400478e-003
      4.38490957e-002 8.00654478e-003 1.62275974e-002 2.15214351e-003
      1.11917956e-002 2.16306802e-002 -4.27836329e-002 -1.37276249e-002
      -3.63983288e-002 -5.92234023e-002 1.18110906e-002 -3.18862125e-002
      -4.36500162e-002 -2.09412128e-002 -4.01810147e-002 6.28292114e-002
      -1.97882168e-002 3.44455149e-003 3.47122960e-002 1.75564699e-002
      2.80983727e-002 3.34534049e-002 3.50239202e-002 7.14380592e-002
      -9.36757307e-003 2.17093881e-002 -1.98529623e-002 -2.02484969e-002
      4.55577821e-002 -1.78755112e-002 -2.22197790e-002 1.61375236e-002
      -1.82975102e-002 -1.10531785e-002 -2.16039494e-002
      -1.17350761e-002 -4.12256829e-002 -1.31189292e-002
      -3.82433422e-002 -2.52020694e-002 1.09480917e-002 1.98605489e-002
      6.90323021e-003 -4.93388213e-002 -2.72273384e-002 -7.27958754e-002
      -7.14795571e-003 -6.61526844e-002 -2.10867692e-002
      -2.48012599e-002 1.89227536e-002 -1.01081291e-002 -1.36983162e-003
      2.32511889e-002 -7.15236063e-004 4.22596419e-003 -3.14815454e-002
      -1.12050623e-002 2.26279516e-002 -6.00525737e-003 1.59187857e-002
      -2.44539045e-002 -1.39938975e-002 8.04553460e-003 1.48569066e-002
      -2.00457573e-002 2.17214469e-002 7.56719150e-003 7.05696596e-003
      -5.68326609e-003 -1.30605008e-002 3.40320468e-002 -3.13783735e-002
      9.38018027e-004 -2.72965133e-002 6.20920677e-003 8.88241641e-003
      4.19161692e-002 -3.98952663e-002 -2.38538180e-002 3.13136093e-002
      -2.69211512e-002 -3.16868573e-002 -2.01839730e-002 3.23818736e-002
      5.49551621e-002 3.37238312e-002 6.89728651e-003 -2.35667452e-002
      5.65304384e-002 1.61843468e-002 1.54832052e-002 -9.86181200e-003
      -1.30096879e-002 -2.89665796e-002 3.91814187e-002 -2.11063065e-002
      -4.86987643e-002 7.82950316e-003 9.24292428e-004 -3.52851786e-002
      -2.25104503e-002 2.66439747e-002 2.59635355e-002 2.48555914e-002
      -4.44094837e-002 -3.35970782e-002 3.28294896e-002 -9.03678034e-003
      -3.48869525e-002 -2.08870526e-002 1.66543983e-002 3.85059901e-002
      3.19572128e-002 -1.17006991e-002 8.34840990e-004 -1.46834049e-002
      -3.24326009e-002 1.71231367e-002 3.29316966e-002 2.61949264e-002
      8.47934745e-003 -1.23043731e-002 -5.35704233e-002 -6.73910379e-002
      1.06843021e-002 1.34651298e-002 -4.01169881e-002 -7.91370030e-003
      1.58783644e-002 2.46403608e-002 -3.22606508e-003 -1.85692646e-002
      9.88511182e-003 3.31375077e-002 -5.67913812e-004 2.14389358e-002
      4.14720476e-002 1.88935455e-002 5.87689411e-003 -3.96966971e-002
      -2.59454381e-002 1.49394022e-002 2.24053897e-002 -3.98538858e-002
      -1.70615164e-003 -2.32534111e-002 3.96857820e-002 2.11095791e-002
      2.76509691e-002 -1.34053444e-002 2.70937779e-003 -2.29735300e-002
      -1.73697192e-002 -9.85421520e-003 -1.94199830e-002 1.05159981e-002
      7.86390621e-003 -1.87542103e-002 -6.43845126e-002 -3.84871401e-002
      2.28336491e-002 -1.48402452e-002 2.11147591e-002 -1.18280593e-002
      -3.12526687e-003 -7.81213306e-003 -2.27004159e-002 5.57248201e-003
      -2.65946053e-002 3.53859439e-002 1.30376713e-002 2.52291188e-003
      -3.18022147e-002 1.45410327e-002 1.71623621e-002 -2.64500646e-004
      -6.57726545e-003 -2.53280085e-002 -2.16115266e-002
      -6.35171821e-003 1.32660416e-003 -1.95676535e-002 6.12580366e-002
      9.25570354e-003 5.64280432e-003 6.51770085e-003 -4.97159967e-003
      7.58592412e-003 1.62415151e-002 4.55919579e-002 -3.13821994e-003
      6.31876960e-002 2.01193038e-002 -3.38268699e-003 -4.37584408e-002
      -2.30398588e-002 7.90169369e-003 1.26979910e-002 -5.42687103e-002
      -7.91201815e-002 1.45850331e-002 -1.54042998e-002 -3.41614671e-002
      -5.73324002e-002 -1.85710937e-002 1.77451819e-002 7.77199194e-002
      2.03680843e-002 -1.62539445e-002 -2.46279407e-003 -4.77881059e-002
      -4.96607088e-002 -1.24467043e-002 5.80624565e-002 1.54590262e-002
      7.33482838e-003 9.03778989e-003 -1.02338111e-002 6.49936348e-002
      4.51872945e-002 6.18126942e-003 4.44111414e-002 8.69278982e-002
      2.30917297e-002 1.16213867e-002 4.41511311e-002 6.24129968e-003
      3.64974923e-002 -1.45032480e-002 7.85533432e-003 -4.49834019e-002
      3.87148485e-002 3.34779397e-002 2.30134092e-002 -1.67444833e-002
      -7.64295608e-002 -1.34965898e-002 -3.18088233e-002
      -9.12556946e-002 -3.68549069e-003 -1.17288847e-002 1.62339415e-002
      7.06456276e-003 -2.18933467e-002 -3.76055501e-002 -2.81207692e-002
      -3.87275256e-002 -1.62981115e-002 6.54430762e-002 2.71094684e-002
      -4.60096374e-002 -2.49325596e-002 -1.58726133e-003 8.16322770e-003
      -9.50656645e-003 6.52547693e-003 4.96082455e-002 -2.97537050e-003
      2.30614096e-002 8.21237732e-003 -5.44520579e-002 1.81651991e-002
      -3.51201892e-002 -3.81929874e-002 6.46743923e-003 -8.29768181e-003
      5.21027409e-002 2.38750800e-002 8.21065344e-003 -5.24105912e-004
      2.90320301e-003 2.87954882e-002 -2.54933839e-003 -6.51874929e-004
      5.80877699e-002 2.11530663e-002 5.70205152e-002 -8.15457478e-003
      -2.00443575e-003 1.52772050e-002 -5.38879773e-003 -9.04654711e-003
      4.93217958e-003 -1.03131402e-002 -2.85435119e-003 1.42386230e-002
      -4.20746533e-003 -3.53931673e-002 -2.18867231e-002
      -1.43745421e-002 -3.64529877e-003 5.87674882e-003 -9.71353427e-003
      -1.58217375e-003 -2.39424147e-002 8.45387764e-003 -7.40160197e-002
      -2.44691074e-002 -3.63041423e-002 -4.24811471e-004
      -2.94127818e-002 -1.89142395e-002 2.97652688e-002 4.74751070e-002
      2.82180328e-002 2.88419463e-002 -3.37173343e-002 -1.41225988e-002
      4.48373333e-003 -7.88555574e-003 1.19789774e-002 4.36379425e-002
      2.46321298e-002 1.28067029e-003 -5.46125509e-002 -7.96580967e-003
      -4.54127640e-002 -7.25153973e-003 -2.55752839e-002
      -1.11851301e-002 3.46665233e-002 6.73024170e-003 2.45565008e-002
      -6.12332895e-002 -5.83861172e-002 -7.92577304e-003 1.25591606e-002
      -6.75926078e-003 6.61414862e-002 1.05161301e-003 -4.69747446e-002
      -4.73311469e-002 -6.39123619e-002 -3.57999392e-002
      -4.50244136e-002 -3.63212675e-002 -2.96358038e-002 1.03757791e-002
      4.50291578e-003 1.29476171e-002 -3.73561680e-003 1.72997115e-003
      -3.03426608e-002 9.43707861e-003 1.95245259e-002 -1.72933191e-002
      -5.32304868e-003 -3.93046625e-002 -1.68846063e-002
      -6.98699569e-003 -1.23507725e-002 1.39423572e-002 -1.25057362e-002
      8.24380293e-003 8.58823955e-003 -2.23659091e-002 -3.68500017e-002
      -1.87129769e-002 -2.64696334e-003 -1.49737531e-002
      -2.17206106e-002 8.08570720e-003 -1.42107790e-004 1.44895799e-002
      2.96763107e-002 -3.81978787e-002 -7.54674198e-004 3.46456543e-002
      -5.13856299e-002 -3.54082487e-003 -1.69578344e-002
      -4.76549342e-002 -2.95084752e-002 -4.93383966e-002
      -6.80233613e-002 -4.03602496e-002 4.22526896e-002 2.97539849e-002
      7.56445108e-003 -5.66848321e-003 4.93045012e-003 5.31854387e-003
      -3.10162697e-002 -1.22345015e-002 -6.87835962e-002
      -3.04069761e-002 -2.49290895e-002 2.42459122e-002 -5.45384325e-002
      -1.48260100e-002 -2.47945953e-002 1.95229449e-003 -2.49792412e-002
      -9.21758451e-003 4.59783562e-002 -1.70946158e-002 2.49793828e-002
      2.66649034e-002 1.24907009e-002 1.10027678e-002 3.43310088e-002
      3.14360000e-002 -1.16416160e-002 4.44500847e-003 -2.27956604e-002
      -3.12890820e-002 -4.99193892e-002 -1.82631221e-002 5.14142867e-003
      -1.37338659e-003 -1.96167808e-002 -3.54505517e-002 1.94389690e-002
      2.19166484e-002 3.24519351e-002 1.81289427e-002 5.05347317e-003
      -1.52622666e-002 4.69376892e-002 -3.65868844e-002 -3.00528761e-002
      -2.58771777e-002 5.24646230e-003 5.13557382e-002 5.37417131e-004
      -1.90783199e-002 -4.71675619e-002 -3.00064712e-004 1.62212718e-002
      2.69045513e-002 4.13177423e-002 2.25779582e-002 -7.69673288e-003
      1.02417162e-002 2.40830742e-002 5.70078380e-003 -1.13795011e-003
      -4.64496426e-002 5.25153801e-002 4.51510325e-002 3.97213735e-002
      -1.28870225e-002 -3.98064032e-002 -2.86858827e-002
      -1.01941805e-002 -3.74196209e-002 -4.25505750e-002
      -1.23237947e-003 1.42892580e-002 2.58521419e-002 3.07305437e-002
      -1.56051880e-002 2.80229347e-006 -1.69827193e-002 2.20800564e-003
      -3.60932164e-002 -1.39500462e-002 3.56068509e-003 -9.74156056e-003
      -2.66018063e-002 -7.02729672e-002 -6.63998649e-002 1.67848337e-002
      -3.88539322e-002 -7.90501386e-003 8.86734128e-002 5.33446781e-002
      4.17292342e-002 3.12236138e-002 -6.24497160e-002 3.52516375e-003
      5.23158424e-002 -2.58374996e-002 1.35281049e-002 1.44451261e-002
      4.16242192e-003 2.94064600e-002 1.76645201e-002 -2.23178323e-002
      6.60365866e-003 6.35616109e-002 1.32501833e-002 -3.27830687e-002
      3.84567343e-002 2.15323698e-002 1.48494560e-002 -3.39416019e-003
      -2.54269652e-002 1.51792038e-002 8.82012546e-002 -1.69572793e-002
      -2.25761067e-002 -3.93971950e-002 -2.47919187e-002 2.72732135e-002
      2.22495827e-003 -9.29654390e-003 -2.50444631e-003 5.40387258e-002
      -2.00098455e-002 5.94540685e-002 -5.55220200e-003 9.22048651e-003
      1.50791288e-003 1.18910102e-002 1.82428434e-002 -7.20644882e-003
      6.00066176e-003 5.64753227e-002 3.48307528e-002 7.24886637e-003
      2.93345191e-002 1.28445746e-002 5.80644421e-002 8.18554498e-003
      -3.89794610e-003 3.40243219e-003 5.66602778e-003 5.45783387e-003
      -5.32085337e-002 -4.78593539e-003 1.14120347e-002 -1.73951425e-002
      -1.25036156e-002 -2.43838597e-002 2.16810685e-002 6.86031431e-002
      -7.41820550e-003 -9.43869818e-003 -1.45652229e-002 4.90945317e-002
      1.93530060e-002 -3.20130922e-002 -3.12754437e-002 2.20777187e-002
      6.79748273e-003 1.10429956e-003 -2.16965266e-002 1.57766007e-002
      -5.80263510e-003 -1.66730434e-002 -2.84354147e-002
      -1.18495189e-002 -2.10427633e-003 2.51174322e-003 3.02419649e-003
      -1.03091989e-002 2.58034393e-002 -4.88900654e-002 1.67743843e-002
      -8.62608626e-002 -3.91341299e-002 -4.20896485e-002
      -4.78273295e-002 -3.63924098e-003 -2.49170177e-002
      -7.27928756e-003 4.20027860e-002 -1.49524417e-002 -1.68254822e-002
      -3.35747711e-002 7.37710902e-003 7.22490950e-003 4.54564057e-002
      -2.45987368e-003 2.26450358e-002 2.51735058e-002 5.75812683e-002
      -2.76285014e-003 -6.86916348e-004 1.89293846e-002 3.60105783e-002
      -2.85030399e-002 -4.99468334e-002 -3.63202766e-002
      -5.67437559e-002 -5.07228933e-002 -2.78179552e-002 2.19554976e-002
      -1.66459177e-002 -1.56658771e-003 -5.05610183e-002
      -5.06648682e-002 -4.72730286e-002 -1.10226080e-001
      -3.07521448e-002 -5.30449748e-002 1.91165134e-002 5.95398387e-003
      -1.08860461e-002 3.06624286e-002 -3.04401573e-003 2.93522384e-002
      -9.87639837e-003 -1.93567201e-003 4.41005602e-002 3.58790867e-002
      1.06735453e-002 5.49601279e-002 -4.47337842e-003 -2.58884728e-002
      -5.63224070e-002 -3.49730887e-002 -1.65500510e-002 5.68909245e-003
      3.56206968e-002 7.25864759e-003 3.16131264e-002 -3.26909521e-003
      6.94712158e-003 5.89966634e-003 2.77873967e-002 2.45395564e-002
      -9.82218538e-004 3.48952413e-002 1.76387727e-002 1.79164484e-002
      8.34728777e-003 -1.91646838e-003 -1.39540080e-002 -5.19309714e-002
      1.11951325e-002 -6.67935982e-002 1.38899218e-003 -5.64942397e-002
      8.10349826e-003 1.02224797e-002 1.13061937e-002 -4.97386791e-004
      2.77261380e-002 3.44610624e-002 3.87792550e-002 8.89208242e-002
      1.06080873e-002 4.96207736e-002 5.52926771e-002 3.91173586e-002
      -3.06093916e-002 -3.24523002e-002 -3.29786283e-003
      -6.12126365e-002 -1.71187986e-002 -5.40198460e-002 1.77418860e-003
      3.26026827e-002 -1.53630995e-003 2.49190312e-002 2.04504300e-002
      -2.98705921e-002 -6.91177649e-003 3.33145857e-002 -1.05106486e-002
      3.00831348e-002 1.83226224e-002 -3.46160941e-002 -5.82137182e-002
      -1.98107231e-002 1.09747434e-002 -3.64066325e-002 1.54889487e-002
      -2.31990796e-002 -1.37437824e-002 2.67467275e-002 3.38356011e-002
      7.58082978e-003 9.40068439e-003 -9.86131188e-003 -1.13741644e-002
      4.63508517e-002 3.85591853e-003 2.03106962e-002 -3.82529721e-002
      -3.01929936e-002 -5.23006655e-002 -5.56914546e-002 5.89406409e-004
      -3.26293078e-003 3.59304361e-002 4.43502702e-003 -1.20871915e-002
      1.28575591e-002 -4.94708773e-003 -3.27249523e-004 2.01472864e-002
      1.71154980e-002 -2.96757780e-002 7.21066911e-003 1.82936285e-002
      2.35206299e-002 -4.72772121e-002 -5.27844205e-002 -2.81247813e-002
      -3.57078500e-002 -3.25859264e-002 -5.81272319e-002
      -4.73463051e-002 4.49833972e-003 -2.95454659e-003 -5.15061654e-002
      -2.13843342e-002 -1.53761739e-002 -1.56556722e-002 1.06652314e-002
      -3.89607660e-002 -1.60583481e-002 -7.88381032e-004
      -1.82366502e-002 -5.32088540e-002 -1.17232809e-002
      -1.30453100e-002 1.28947396e-003 -3.86439799e-003 -6.71739355e-002
      -4.77150083e-002 -2.19823662e-002 -4.47953492e-002
      -1.98631473e-002 -6.08935347e-003 6.21419307e-003 -5.90253854e-003
      -3.63051742e-002 1.92182250e-002 3.01179420e-002 6.37830719e-002
      4.10213657e-002 -4.38937843e-002 -4.16491404e-002 -5.81789874e-002
      -2.82934513e-002 -1.01742744e-002 -3.46616819e-003 1.99153507e-003
      6.48519620e-002 1.30170127e-002 -5.54557070e-002 3.92859476e-003
      1.52897658e-002 1.90873146e-002 -8.96780659e-003 -2.24130694e-002
      9.64935962e-003 -4.93754586e-003 -6.01438917e-002 -1.09782942e-001
      -5.98164275e-002 -7.07395822e-002 -4.18354571e-002
      -1.31214010e-002 9.61657707e-003 -3.05530969e-002 -1.31509909e-002
      -8.91376734e-002 1.48134883e-002 -4.39705625e-002 -1.70805231e-002
      -1.36424908e-002 -2.76518688e-002 -1.22299949e-002 1.04170414e-002
      4.07006033e-002 7.63178170e-002 -1.20168533e-002 -2.18784381e-002
      -8.26940313e-003 1.27740595e-002 2.10990030e-002 -1.13334497e-002
      1.48465410e-002 2.69656759e-002 2.04522349e-002 2.27090660e-002
      -1.62416752e-002 2.88663968e-003 -3.31136095e-003 -1.93173648e-003
      -2.37723291e-002 -3.57653014e-002 1.94254360e-004 5.67850582e-002
      -5.70061011e-003 -1.93506181e-002 3.43753700e-003 -8.90509412e-003
      1.39267063e-002 -4.13695537e-003 -3.86418849e-002 -1.28076135e-004
      9.96229891e-003 -3.16285975e-002 -3.25481780e-002 -1.17565063e-003
      3.08579672e-002 -1.50664458e-002 -2.15064343e-002 -5.26583055e-003
      2.93646706e-003 -5.22351936e-002 3.81900668e-002 1.17880087e-002
      3.13246958e-002 -4.10848344e-003 3.86163406e-002 5.09939231e-002
      1.58163067e-002 6.69094734e-003 -4.15196037e-003 -5.07597923e-002
      -1.54060991e-002 6.21277839e-004 -3.31963375e-002 -2.36125905e-002
      -9.84468758e-002 -3.30414400e-002 1.31746149e-003 3.68366113e-006
      -1.42662646e-002 2.09431816e-002 4.79497835e-002 5.25372708e-003
      8.47572088e-003 -2.83531118e-002 1.90874860e-002 1.45412683e-002
      1.82837751e-002 4.48686033e-002 1.63462386e-002 5.69430478e-002
      4.40061353e-002 3.28516401e-002 6.57070354e-002 4.33235653e-002
      1.56344827e-002 1.34796621e-002 -3.49575654e-002 -5.83713837e-002
      -3.14566270e-002 -2.27450114e-002 4.62303534e-002 5.43267047e-003
      -1.86353747e-003 -4.04186174e-003 -2.59671751e-002 3.68070453e-002
      5.60801029e-002 4.55063619e-002 4.95123975e-002 -3.02202348e-002
      -9.19012760e-004 1.03633543e-002 -2.19969545e-002 4.53587174e-002
      -4.31191027e-002 -7.89926425e-002 -5.19626588e-002
      -2.84057427e-002 -1.87384393e-002 -5.46080433e-002 3.33647337e-003
      -6.75255782e-004 -3.59370606e-003 -3.07132248e-002
      -2.19767895e-002 -1.82158519e-002 1.06329136e-002 3.86212347e-003
      1.80029776e-002 4.54325043e-002 -9.42961778e-004 -2.11842335e-003
      2.77841445e-002 2.01383904e-002 1.10926188e-003 -3.24452929e-002
      7.54590100e-003 -6.61997125e-002 -8.64843205e-002 -5.87033294e-002
      -1.85655504e-002 -2.88076289e-002 -6.61281031e-003 1.30813560e-002
      3.42787988e-002 1.39708854e-002 -1.24001307e-002 1.28204357e-002
      1.30113335e-002 3.22030811e-003 -2.78053619e-002 -1.47308251e-002
      1.56018184e-002 9.02112946e-003 3.96607118e-003 -4.58947755e-002
      -7.65063539e-002 -4.55689915e-002 1.20729925e-002 5.75714782e-002
      4.51303013e-002 1.77535713e-002 -3.78520275e-003 -1.07693179e-002
      -1.22154644e-002 -2.73992103e-002 -1.75871849e-002 2.58698431e-003
      -2.75237802e-002 -4.66241352e-002 -6.90887421e-002
      -7.81115964e-002 -3.74937914e-002 -5.92142642e-002
      -4.03890461e-002 -4.57033888e-002 -7.57577047e-002 4.24920581e-002
      1.36807682e-002 1.13048991e-002 6.64619775e-003 4.80312668e-003
      -3.35211568e-002 1.52986320e-002 9.44794249e-003 3.37647758e-002
      5.96445985e-003 -3.87340374e-002 -9.25595015e-002 -7.69095570e-002
      -1.75170973e-002 -7.29086846e-002 -9.48883826e-004
      -1.72028281e-002 -2.32136827e-002 -1.34068029e-002 7.03611597e-003
      8.51837918e-003 -1.22331074e-002 -1.98989385e-003 -3.71537986e-003
      2.24972056e-004 -1.29778618e-002 -3.60079668e-002 -3.00197545e-002
      -1.25709912e-002 -6.07315358e-003 -1.87615864e-002
      -3.75111774e-002 -3.29994895e-002 -2.08010469e-002
      -6.12594709e-002 -8.29087570e-002 3.00802290e-002 3.87002304e-002
      7.87380338e-003 -5.17920591e-003 -5.73724741e-004 -4.56099724e-003
      6.05525216e-003 7.31118582e-003 1.26251299e-002 -1.78763364e-002
      -2.89713442e-002 -5.16742654e-002 -4.25298177e-002
      -7.10760728e-002 -4.63440679e-002 -2.47398578e-002
      -2.66273580e-002 -7.34684542e-002 -1.61086675e-002
      -1.18085109e-002 1.26773994e-002 -3.93660925e-003 -4.35715206e-002
      -9.42937378e-003 1.11387772e-002 -2.48552542e-002 -7.46591166e-002
      -4.44455706e-002 -1.02464780e-002 -1.23795737e-002
      -2.47230586e-002 -2.11565364e-002 -1.78927078e-003
      -5.34149371e-002 -3.09325904e-002 -6.32524118e-002
      -5.83719462e-002 -1.75864492e-002 -5.89362392e-003
      -3.74844037e-002 -6.97357729e-002 -2.66719721e-002 2.59034298e-002
      1.60295814e-002 -8.37910920e-002 -8.58443975e-003 1.67569965e-002
      1.68973934e-002 -3.67782675e-002 -4.52864207e-002 -4.48088758e-002
      -1.12245604e-002 -1.43225966e-002 -2.10415162e-002 4.21813838e-002
      2.12656404e-003 1.28944288e-003 1.68187693e-002 1.63279064e-002
      2.86800507e-002 -1.46743730e-002 -1.57859887e-003 6.39268234e-002
      4.59299842e-003 1.80724803e-002 1.31048542e-003 9.81422700e-003
      2.15490554e-002 2.78987624e-002 1.48417354e-002 -1.57832040e-003
      -4.48276522e-003 6.46065399e-002 -5.63671673e-003 -1.42132305e-002
      7.14052329e-003 -4.97526396e-003 -1.78172179e-002 -6.83431560e-003
      9.45770741e-003 7.94489533e-002 3.21407914e-002 5.07021975e-003
      1.52787240e-002 2.94983499e-002 1.05236266e-002 -1.82712674e-002
      4.35111299e-002 5.96927777e-002 3.24956775e-002 7.32460758e-003
      9.43331141e-003 2.71091610e-002 2.57383417e-002 2.06087586e-002
      -1.62444040e-002 -8.21677037e-003 -1.63804516e-002
      -1.37972506e-003 -2.23242603e-002 -2.63804793e-002 2.15393547e-002
      5.40739298e-002 1.35333650e-002 -2.52758581e-002 3.47109996e-002
      -1.35726044e-002 -1.24577256e-002 1.36265215e-002 3.20815481e-002
      5.85661363e-003 4.49045701e-003 -3.65350991e-002 -1.89115815e-002
      6.26749964e-003 1.68748870e-002 -5.89369005e-003 -3.07103582e-002
      -4.02876884e-002 -2.73227077e-002 -2.96020135e-002 5.62413642e-003
      7.89742172e-003 5.13622649e-002 1.28275268e-002 -3.22928354e-002
      3.08055300e-002 2.09618956e-002 3.19320522e-002 5.02509959e-002
      -7.22882897e-003 -1.89358722e-002 5.22977151e-002 3.41678225e-002
      2.53257565e-002 -1.51351308e-002 2.51334142e-002 4.09855880e-002
      4.34820540e-002 5.82435951e-002 -5.28124832e-002 -3.54985148e-003
      -9.67653096e-003 -2.79474165e-002 2.77685784e-002 3.49776410e-002
      2.06762105e-002 1.28591107e-002 3.32839005e-002 2.56242026e-002
      3.85933928e-002 5.26572354e-002 1.77407227e-002 -2.05509290e-002
      8.69620778e-003 1.62633974e-002 1.78407319e-002 3.07602994e-002
      -6.92613721e-002 -2.10204776e-002 2.46542729e-002 -9.38480720e-003
      -8.21706187e-003 3.71942408e-002 7.98190087e-002 5.24807163e-002
      7.71039873e-002 3.64856608e-002 3.17227617e-002 1.66566391e-002
      -3.04851010e-002 1.51178036e-002 1.02971112e-002 5.45105487e-002
      3.03484895e-003 2.01445892e-002 1.07826130e-003 -6.28272817e-003
      -4.04777192e-002 -1.38967286e-003 2.44784169e-002 1.76013652e-002
      3.74801084e-002 -3.31719853e-002 2.19155364e-002 5.43738864e-002
      1.91588234e-002 -1.21462792e-002 -6.04396407e-003 5.50410757e-003
      -1.69461835e-002 -2.99797505e-002 -8.08476731e-002
      -5.17482944e-002 8.20348039e-003 -1.73437912e-002 -8.14098045e-002
      -2.05783620e-002 -1.26025910e-002 -2.02809628e-002 2.20786314e-002
      9.04897135e-003 1.09194396e-002 1.13191586e-002 1.30513068e-002
      1.96181051e-002 -2.47906782e-002 -2.41094246e-003 -1.20180228e-003
      -3.61979306e-002 -7.26227835e-002 1.51389083e-002 4.48099710e-003
      2.56583486e-002 4.28582134e-004 -1.65960882e-002 2.25670971e-002
      1.07921602e-003 1.81425381e-002 -8.79982952e-003 1.57978926e-002
      2.71847844e-002 6.66937698e-003 -1.65690407e-002 -2.70670815e-003
      -3.10656391e-002 -3.78626585e-002 -6.13299012e-002
      -6.66705295e-002 -1.92168308e-003 -1.88922994e-002
      -3.41964513e-002 -5.38904816e-002 -2.09487490e-002 1.67983491e-003
      6.16539344e-002 4.27634716e-002 -7.69019034e-003 2.34524254e-002
      1.20580345e-002 1.15572121e-002 -8.62408988e-003 -2.26133950e-002
      -4.82674949e-002 -1.87682435e-002 -3.00883781e-002
      -4.69356775e-002 -3.33132856e-002 -4.65920642e-002
      -5.77811711e-002 -2.76434682e-002 -5.80077134e-002 2.28966102e-002
      3.94276381e-002 -2.13388726e-003 -1.47460150e-002 1.44624012e-002
      2.37471387e-002 -2.34777946e-002 -2.75520179e-002 -1.80169735e-002
      -1.73797049e-002 -4.47261482e-002 -7.33225048e-002
      -6.82946146e-002 -2.03815922e-002 -2.63464991e-002
      -4.97285649e-002 -3.93950045e-002 -3.01311854e-002
      -6.71107545e-002 6.99802721e-003 1.24606779e-002 -3.25564481e-002
      -4.88005355e-002 1.89989954e-002 4.25964892e-002 3.22383307e-002
      -6.05724603e-002 -4.61214818e-002 2.97477632e-003 1.81279406e-002
      -2.93323603e-002 -4.85900268e-002 1.20914992e-004 -2.50757206e-002
      -1.75248161e-002 -6.22081645e-002 -2.95625441e-003 3.59990038e-002
      -2.05414463e-002 -3.08194347e-002 6.91580307e-003 6.51856698e-003
      -5.97834261e-003 -6.77239290e-003 -1.08049978e-002 2.30101701e-002
      7.87206367e-003 -4.02047560e-002 -2.36007739e-002 1.51162948e-002
      1.65135600e-002 -3.55790206e-003 -2.95203552e-002 1.36279529e-002
      2.33554430e-002 -6.70852512e-002 -1.09037673e-002 -9.52723087e-004
      -2.26878095e-002 -2.03311141e-003 -3.71704511e-002
      -2.31559966e-002 6.24151304e-002 -5.71463862e-003 -4.51298803e-002
      -5.17960591e-003 1.08572906e-002 -3.45355310e-002 -2.48195194e-002
      1.61756892e-002 2.53960639e-002 -5.20655839e-003 7.77935460e-002
      -8.81850161e-003 5.97862585e-004 -1.39321368e-002 8.40990106e-004
      4.56638727e-003 -1.73825957e-002 -2.34830864e-002 9.60076824e-002
      1.78950299e-002 -8.08108319e-003 -2.12915260e-002 -2.22263448e-002
      -2.06761528e-003 -1.45411873e-002 7.22129568e-002 4.59588207e-002
      4.08731177e-002 -5.16106039e-002 -1.19739557e-002 -3.18133235e-002
      -3.51585336e-002 -1.33063719e-002 -2.19626762e-002 2.67787967e-002
      1.69601594e-003 -5.78074902e-002 -9.10663232e-003 1.61467381e-002
      -1.94347708e-003 -8.45019147e-003 3.49383131e-002 2.12918669e-002
      2.08493117e-002 -6.05105376e-003 -3.65803912e-002 -2.72463374e-002
      3.74351954e-003 -2.81146634e-002 -4.15735804e-002 -2.47928128e-002
      -2.93543339e-002 5.93337305e-002 1.03517324e-002 -3.67099158e-002
      2.53116563e-002 4.89615649e-002 2.33247094e-002 -3.40413935e-002
      2.13751383e-003 -2.18090434e-002 -2.21129190e-002 -2.19367910e-002
      -4.26698104e-002 9.87064186e-003 -1.66312978e-002 6.12657564e-003
      3.18657793e-002 3.18967178e-002 -1.04039572e-002 6.29615933e-002
      1.31587556e-003 7.43635977e-003 -2.86548771e-002 -4.46078032e-002
      3.05693578e-002 2.38534547e-002 2.26297118e-002 -5.22298142e-002
      -4.16083224e-002 -4.07175496e-002 1.98302791e-002 3.59007977e-002
      9.38105490e-003 2.98010688e-002 7.12853216e-004 1.29062962e-002
      -1.51711656e-003 3.00584026e-002 1.55574391e-002 -9.85564198e-003
      -3.56240235e-002 -5.70212863e-002 -1.53624341e-002
      -6.22310340e-002 -2.61747632e-002 -2.95097101e-002
      -4.18404751e-002 -2.61658765e-002 -7.78262678e-004 1.88289396e-002
      -2.35076565e-002 3.40192951e-002 9.85860266e-003 2.20333543e-002
      3.13247815e-002 3.78606506e-002 -1.47713143e-002 2.28819977e-002
      7.70019693e-003 -1.22961514e-002 3.10014412e-002 -7.02574477e-002
      -5.13371378e-002 2.42486317e-003 7.28722336e-003 -6.96063116e-002
      -7.16155814e-003 4.89173234e-002 -6.87447935e-003 1.76629052e-002
      -1.46564590e-002 -2.31075753e-002 -3.06276628e-003
      -1.03925774e-002 9.91192367e-003 3.45017463e-002 1.99628621e-002
      3.48577509e-003 1.08453659e-002 -1.45473769e-002 -4.36447114e-002
      -9.80167743e-003 -9.08007938e-003 -1.96690708e-002
      -5.63948182e-003 3.73159884e-003 8.71975627e-003 1.30610839e-002
      -2.53040381e-002 -2.95715742e-002 2.32711192e-002 3.43291834e-002
      -2.49262638e-002 -3.61757353e-002 -7.63714910e-002
      -5.09048328e-002 -3.75245400e-002 -2.04412173e-002
      -2.63945423e-002 -1.44431842e-002 -2.06872746e-002
      -5.59418276e-002 -4.88769598e-002 2.43805684e-002 4.49604839e-002
      5.06444164e-002 3.95997912e-002 -1.34507343e-002 1.95790380e-002
      -9.27312952e-003 1.49135641e-003 -3.53016518e-002 -2.76767503e-004
      -1.75911430e-002 2.06695665e-002 1.76968146e-002 -1.46773877e-002
      -2.28794776e-002 -5.95451221e-002 -1.53578660e-002
      -4.41479795e-002 -2.65563484e-002 -2.74736788e-002
      -3.89416032e-002 -6.10615350e-002 -2.46437863e-002 3.43239382e-002
      -1.09554175e-002 -1.71773154e-002 -2.72467844e-002
      -2.42721140e-002 2.48603319e-004 -4.54465300e-002 -3.90845388e-002
      -5.03477789e-002 -3.49409208e-002 -8.28260109e-002
      -9.12737008e-003 -6.45547034e-003 -3.46036279e-004
      -1.85189303e-003 2.28009932e-002 -1.56948075e-003 -4.19007502e-002
      4.89651272e-003 1.04357339e-002 5.46755232e-002 -5.33594303e-002
      -1.45625388e-002 6.57481477e-002 3.11848824e-003 -5.72138056e-002
      -2.92925667e-002 -2.24109627e-002 -9.79422312e-003 9.91064161e-002
      -6.28497973e-002 -4.28351946e-002 2.19685826e-002 1.15539441e-002
      -1.07085546e-002 -3.14188227e-002 -1.52527522e-002
      -5.06022684e-002 -1.61679070e-002 -5.95864989e-002
      -5.48973270e-002 -4.88294959e-002 -2.95496210e-002 3.23824910e-003
      3.12404335e-002 4.56800014e-002 -3.17095732e-003 -2.12067813e-002
      -3.10203433e-002 5.99211687e-003 1.15122750e-001 6.61012009e-002
      -7.23503949e-003 -2.58829668e-002 -2.98982412e-002
      -3.41452435e-002 5.44724241e-002 -4.17336039e-002 9.15229507e-003
      2.93295365e-002 4.94576804e-002 1.36134180e-003 3.51847298e-002
      7.12519959e-002 1.95484199e-002 6.08283542e-002 5.21131530e-002
      3.62665318e-002 -1.30148111e-002 5.79579128e-003 1.43360253e-002
      -1.28352027e-002 1.35645559e-002 -3.12394686e-002 -6.23248704e-002
      1.75487287e-002 -2.29960103e-002 -2.67139822e-002 -2.31848508e-002
      -7.64263002e-003 -3.79524124e-003 7.54260737e-003 8.86749662e-003
      4.25175391e-003 -1.00403465e-002 9.45877582e-002 4.20573764e-002
      3.92378643e-002 4.02827933e-003 -4.57752012e-002 -1.85778271e-002
      -1.79912578e-002 -4.14818525e-002 6.92626908e-002 7.94544443e-003
      3.48092355e-002 1.69473980e-002 -2.48332489e-002 3.34720463e-002
      -2.04866417e-002 9.50482860e-003 -1.78447515e-002 -8.99242063e-004
      -6.42648200e-003 -2.49228049e-002 -2.12807916e-002
      -9.73988883e-003 -1.31365228e-002 3.98235256e-003 3.01964134e-002
      -2.42024325e-002 -2.87493467e-002 4.21544425e-002 2.18443237e-002
      2.80404519e-002 -3.47943380e-002 -2.74062548e-002 -9.17250197e-003
      -1.07282326e-002 -2.60427184e-002 -9.42587576e-005 1.35284336e-002
      1.31621258e-002 3.34197320e-002 -3.29739898e-002 -1.29439868e-002
      2.06754506e-002 1.60505343e-002 -4.36885422e-003 1.60002764e-002
      1.85663172e-003 2.38217996e-003 -3.40580664e-005 -2.60643046e-002
      1.13952179e-002 1.09077012e-002 -2.29783207e-002 -1.47403982e-002
      1.58881899e-002 -2.02942211e-002 -4.35309038e-002 2.89952774e-002
      9.35267541e-004 1.20145455e-002 1.75023712e-002 3.94338071e-002
      -4.86180522e-002 -2.20793020e-002 5.08692302e-002 -1.40047288e-002
      3.52255777e-002 -3.90033834e-002 1.96861662e-002 -6.01059869e-002
      1.39476694e-002 -3.16683799e-002 2.25784518e-002 -2.06602532e-002
      -4.95112687e-002 7.08059827e-003 -7.80250644e-004 3.53459705e-004
      -1.07214358e-002 1.19702360e-002 -8.65969062e-003 9.24052671e-003
      -6.60772203e-003 -2.32407041e-002 -4.03120406e-002
      -4.73628342e-002 6.39643371e-002 -3.35609540e-002 -6.05525402e-003
      -3.36682871e-002 3.03917006e-002 3.87256369e-002 1.58255566e-002
      3.28538404e-003 -3.78502272e-002 -1.42726619e-002 -2.74808835e-002
      3.33513394e-002 -3.24212573e-002 -5.84142953e-002 1.09246075e-002
      9.73815448e-004 2.72767115e-002 -1.32479174e-002 -4.55734693e-002
      -6.85931928e-003 -1.26054289e-003 -4.39091213e-002
      -6.01308830e-002 -1.12494472e-002 7.62164267e-003 -5.75890159e-003
      -5.42833805e-002 1.47835305e-002 -2.89804619e-002 -2.89657712e-003
      -4.29720655e-002 -3.27135362e-002 -3.12356800e-002 6.43369323e-003
      1.72184911e-002 -8.39480106e-003 2.60109212e-002 -3.16660255e-002
      -1.31622506e-002 -2.91048624e-002 1.83128379e-002 1.51330512e-002
      -1.10174818e-002 1.39459711e-003 -4.82892282e-002 -5.40337712e-002
      2.98143402e-002 2.54790429e-002 3.07127979e-004 -5.77683188e-002
      4.72315028e-002 6.08220743e-003 4.28438298e-002 2.01028343e-002
      2.33655628e-002 1.33494800e-002 -1.96526702e-002 -9.68370866e-003
      -1.01257581e-002 8.46585259e-003 2.44359039e-002 1.39604686e-002
      -2.97050811e-002 -1.61374398e-002 1.10313883e-002 3.73240821e-002
      1.70555357e-002 1.67510961e-003 2.04014201e-002 1.73392345e-003
      2.27018930e-002 7.38228671e-003 9.78975743e-003 3.70993465e-002
      2.92210337e-002 5.26476316e-002 -8.58572964e-003 -5.35275526e-002
      -6.16362393e-002 -1.08860862e-002 -7.20365858e-003
      -5.76277897e-002 1.17003210e-002 3.32532148e-003 -8.18819739e-003
      -7.95938894e-002 -3.52625027e-002 1.01193078e-002 -1.36906765e-002
      -2.08159350e-002 -4.01475839e-002 -3.61585282e-002
      -1.94749665e-002 -6.73478062e-004 -4.68998738e-002
      -5.03069162e-003 -1.88268721e-002 1.47859268e-002 1.67376008e-002
      -3.61630768e-002 -4.02081845e-004 3.80783505e-003 2.32759751e-002
      -7.77629111e-003 -3.00497171e-002 1.97923556e-002 -1.67466346e-002
      6.52024671e-002 2.70549953e-002 -6.71067974e-003 -8.17460660e-003
      5.10048978e-002 -2.34172773e-002 -6.24399185e-002 2.26501152e-002
      -2.36524194e-002 -5.45858480e-002 -5.19321933e-002
      -1.87219158e-002 -1.25007117e-002 -2.92449072e-003
      -5.79807423e-002 -2.40913853e-002 -1.49951400e-002
      -2.56697368e-002 -2.97152176e-002 -2.08865572e-002
      -3.19571830e-002 -4.05315645e-002 -6.36701658e-002
      -6.67089270e-003 -3.50173609e-003 5.18501438e-002 -4.35767993e-002
      1.48871467e-002 -2.57529388e-003 2.21363455e-002 3.30229662e-002
      7.28165507e-002 -2.39096757e-004 8.97131767e-003 3.99957895e-002
      -2.45517958e-003 -8.57712410e-004 1.28757013e-002 2.00632345e-002
      3.03380284e-002 4.93351854e-002 3.54822651e-002 1.99926309e-002
      1.90059282e-002 3.11488677e-002 2.21143179e-002 -4.53306809e-002
      3.04482208e-004 -7.69978436e-003 -5.81051745e-002 1.44249788e-002
      -2.95661930e-002 -2.56594978e-002 5.50828129e-003 8.81464127e-003
      2.19388725e-003 -3.40218432e-002 2.15765312e-002 -1.97202750e-002
      -2.33110338e-002 2.70700175e-002 1.62404068e-002 4.06063236e-002
      4.52811010e-002 -2.81839818e-002 1.69436112e-002 -2.80854292e-002
      -1.30517250e-002 3.73218283e-002 -3.38095948e-002 -3.75741161e-002
      -6.74657384e-003 -9.66092385e-003 1.43112587e-002 -2.36996878e-002
      -3.05675436e-002 -2.71210652e-002 -7.46685220e-003
      -1.42445089e-002 -2.64157001e-002 1.18637653e-002 -2.00940315e-002
      -1.29344277e-002 3.25247124e-002 5.17252758e-002 -1.41410744e-002
      6.82468293e-003 -1.68455241e-003 1.16525788e-003 3.30652855e-002
      1.31790922e-003 -9.73093510e-003 1.53298983e-002 1.52184898e-002
      -3.07544973e-003 6.19087042e-003 6.40203804e-003 -6.14283839e-003
      -1.87169388e-002 -5.61800376e-002 -4.00028797e-003
      -9.71297454e-003 1.48743903e-002 3.73275019e-003 9.96997952e-003
      1.62706412e-002 4.61618267e-002 -6.17813598e-003 -3.10344733e-002
      5.52452076e-003 -4.14132774e-002 -1.10679418e-002 -4.00913041e-003
      1.31550422e-002 -1.82810444e-002 -4.79235910e-002 -2.63672508e-002
      -4.62855250e-002 -2.94418931e-002 -1.64278001e-002 2.15194840e-002
      -5.79829095e-003 -2.10975595e-002 -8.95752199e-003
      -4.08395380e-002 -1.14676263e-003 -6.14412725e-002 2.00923514e-002
      -4.67583686e-002 -3.60792922e-003 -2.18590889e-002 2.73010992e-002
      -2.18456564e-003 2.25920025e-002 3.32903564e-002 -3.11832447e-002
      -1.09208934e-002 -6.04158752e-002 2.12982502e-002 4.31906246e-002
      1.83431413e-002 -9.80655849e-003 -2.33546086e-002 -2.02304143e-002
      -3.82852517e-002 1.66044589e-002 -2.46709120e-002 -1.75397974e-002
      -8.97889305e-003 1.95723912e-003 5.87239536e-003 -3.38680036e-002
      -3.04364115e-002 -5.40652163e-002 -1.77190471e-002
      -2.09461208e-002 1.80956870e-002 -2.00809706e-002 6.35785563e-003
      2.06558686e-002 1.87160261e-002 1.40497554e-002 -2.40921564e-002
      1.38396258e-002 -5.63893802e-002 -2.75913980e-002 -4.59420346e-002
      1.67019200e-002 3.81951034e-002 -7.07017817e-003 1.57127641e-002
      -1.81827787e-002 5.11549674e-002 -9.85680800e-003 3.09027117e-002
      2.58937255e-002 2.16406630e-003 5.27648292e-002 4.85126264e-002
      2.72856839e-002 -1.01413007e-003 6.93181232e-002 2.12872699e-002
      3.93425208e-003 -9.70565155e-003 9.42397583e-003 1.48562361e-002
      4.07525413e-002 1.76562686e-002 -1.44333495e-002 -1.94769073e-002
      -1.43757854e-002 1.48097174e-002 -1.72204450e-002 -2.05431823e-002
      4.64750603e-002 2.85353102e-002 6.17262945e-002 2.55419984e-002
      2.10556556e-002 3.07384245e-002 1.61544587e-002 -4.36925516e-003
      1.47955790e-002 6.05455302e-002 5.67221008e-002 -4.82185464e-003
      -1.25109358e-002 3.96060832e-002 2.71912217e-002 1.95539538e-002
      3.80995451e-003 -1.86294019e-002 3.38841416e-002 6.45692721e-002
      4.08078991e-002 2.34300438e-002 8.09613392e-002 4.37783748e-002
      3.26931477e-002 3.44173200e-002 -2.52847765e-002 -2.22683009e-002
      -3.33574228e-002 -2.06267964e-002 -1.23905754e-002
      -5.61071895e-002 -1.67493261e-002 1.71591435e-002 -8.20114650e-003
      -2.53965706e-002 -3.28640901e-002 -1.13014253e-002
      -7.39471754e-003 4.45153937e-002 1.06958812e-002 7.81194121e-003
      7.60369236e-003 2.44378615e-002 -6.21746946e-003 2.34472658e-002
      1.78123899e-002 -2.04005204e-002 -6.18632771e-002 -9.49724670e-003
      -1.92087293e-002 1.05560813e-002 -9.16421041e-003 -3.52403633e-002
      3.75057831e-002 7.15569183e-002 5.86045720e-002 5.46186864e-002
      8.18532985e-003 2.21705046e-002 8.28345865e-003 2.70467084e-002
      -4.65219608e-003 -1.09108590e-001 -1.03479810e-001
      -1.04889058e-001 -3.47684287e-002 -6.42767847e-002
      -2.47270428e-002 -1.37574645e-002 -1.22218514e-002
      -5.00533096e-002 2.36896405e-004 -7.19565004e-002 -4.91605923e-002
      -7.99824484e-003 -9.25672799e-003 2.20663915e-003 -1.21762063e-002
      5.22953505e-003 3.94155979e-002 -2.05541067e-002 -2.96296477e-002
      -4.89504524e-002 6.73593255e-003 -3.13285626e-002 -3.47032771e-002
      -4.83617298e-002 4.57256101e-003 -2.93947626e-002 5.59990741e-002
      7.66077917e-003 1.38105340e-002 6.11324497e-002 2.09113192e-002
      4.99216206e-002 1.66276209e-002 5.16491458e-002 5.82331121e-002
      -3.12097371e-003 -3.63663174e-002 1.53525434e-002 2.95335837e-002
      -5.18214479e-002 -2.87066046e-002 -7.14593614e-003
      -2.34964509e-002 1.04304422e-002 -5.33594377e-002 -3.22498977e-002
      -1.29496567e-002 -1.22636314e-002 1.87098477e-002 -3.75090539e-002
      -2.03422606e-002 -1.18279094e-002 -2.87828278e-002 1.33364247e-002
      -3.22944932e-002 9.51008173e-004 -2.51993891e-002 -4.60730530e-002
      -4.02856655e-002 -3.38742509e-002 -4.45375480e-002 8.00917950e-003
      -2.81082764e-002 -1.02435201e-002 3.56429629e-003 -1.73619054e-002
      -1.88733952e-003 -4.61572409e-002 -4.84884605e-002
      -1.82134602e-002 -3.13546732e-002 -1.96454190e-002
      -4.08354998e-002 -2.93346196e-002 -3.75271216e-002 1.02461493e-002
      -2.17690580e-002 4.42904420e-002 1.14229703e-002 -1.67595334e-002
      -2.00681966e-002 -2.16390602e-002 3.11270542e-003 -1.66781694e-002
      -1.61057711e-002 -3.57203335e-002 1.75656024e-002 -9.89301782e-003
      6.45202771e-003 -3.43285012e-003 -1.97817069e-002 -1.11056576e-002
      5.66896657e-003 -1.24526385e-003 -1.36839598e-003 3.74257527e-002
      2.70039793e-002 -3.25435796e-003 -1.47477686e-002 -1.12927631e-002
      -1.29229454e-002 3.08446884e-002 2.70500388e-002 -6.45240583e-003
      -1.59313940e-002 -8.59922171e-003 1.71075985e-002 -1.05346553e-002
      -3.45371142e-002 -2.43476126e-002 -7.79486597e-002
      -4.80417013e-002 -2.59098317e-002 8.13382026e-003 2.23464891e-002
      3.10531147e-002 -4.55038808e-003 -6.70129387e-003 2.03700196e-002
      -7.71486107e-003 -8.28812458e-003 -2.97108404e-002
      -8.73857457e-003 -8.27924162e-003 -3.36856843e-004 2.29695421e-002
      6.15030527e-004 -2.61168331e-002 1.99948042e-003 -2.21366552e-003
      7.46284565e-003 -3.20782773e-002 1.05377510e-002 3.36264893e-002
      1.03493771e-002 -1.48930922e-002 2.05516722e-002 4.18102257e-002
      3.28520057e-003 3.55787110e-003 -1.70262307e-002 -4.29467149e-002
      -9.79185384e-003 1.05771469e-002 -1.88252740e-002 -4.43246439e-002
      -6.49257824e-002 -4.39584814e-003 -5.02552837e-002
      -1.61749329e-002 -6.48921402e-003 -2.07412038e-002
      -6.32946147e-003 9.04897135e-003 -2.79625319e-002 -3.80347744e-002
      7.48778414e-003 -2.79650651e-002 -1.56647116e-002 -1.54115595e-002
      -2.12945007e-002 -1.19196242e-002 -1.69379395e-002
      -2.24183351e-002 -2.95420010e-002 -2.23127417e-002
      -3.69327478e-002 6.83515333e-003 -2.75840852e-002 -2.84053199e-002
      2.19933279e-002 -5.64651890e-003 7.91176688e-003 -7.72462040e-003
      2.00899597e-002 3.38580534e-002 3.03557552e-002 3.42189111e-002
      -1.27922213e-002 4.12108451e-002 -1.66028999e-002 -8.22827518e-002
      -6.75097853e-002 -1.67136900e-002 -3.17349173e-002
      -3.35758738e-002 -5.09555638e-002 -1.65456794e-002 2.64374800e-002
      7.65447132e-003 -2.11244822e-002 -2.97458004e-002 2.81926971e-002
      1.33162318e-003 -1.43028125e-002 -7.99482167e-002 -2.71677952e-002
      7.03533366e-002 1.05077969e-002 -5.48558049e-002 -3.71622443e-002
      1.47333816e-002 -1.06550995e-002 -1.92318449e-003 3.01053878e-002
      -8.58292542e-003 9.06646326e-002 5.92288822e-002 2.55689286e-002
      4.04698364e-002 4.73403148e-002 -5.07640373e-003 3.52511033e-002
      1.38106318e-002 4.18368056e-002 2.04816777e-002 -5.35594299e-002
      -7.97535330e-002 -9.24590528e-002 -1.16226887e-002
      -3.38872597e-002 -4.47325828e-003 -8.36297572e-002
      -5.41277304e-002 -1.06638316e-002 3.19374464e-002 1.37762008e-002
      2.35668514e-002 8.72235745e-004 -7.22834235e-003 -2.66809594e-002
      -1.80145819e-003 -4.12983410e-002 6.01738133e-002 9.44213569e-003
      -8.16159695e-003 -8.20853375e-003 3.27823386e-002 -1.56954548e-003
      -2.17928272e-003 -2.17870697e-002 1.85410641e-002 4.36644554e-002
      6.77009448e-002 6.48400187e-002 2.14207731e-002 2.95868926e-002
      1.48463612e-002 2.00450812e-002 1.05301766e-002 2.50526015e-002
      -1.03067100e-001 -4.64146361e-002 -8.61558169e-002
      -5.08493744e-002 -5.60076945e-002 -7.40799531e-002
      -6.60782978e-002 -8.45268089e-003 -7.24909380e-002 4.19783965e-003
      -3.14025953e-002 -4.77651134e-002 1.76052190e-002 1.59012768e-002
      4.43109237e-002 -4.18313630e-002 2.18042154e-002 2.54428405e-002
      -3.59516665e-002 1.99420787e-002 -3.34440246e-002 4.60246764e-003
      4.71290527e-003 -3.48287486e-002 -2.11988352e-002 -1.99162830e-002
      -3.47001702e-002 3.48376408e-002 -1.46982139e-002 -3.65711302e-002
      -9.72201303e-003 6.27136976e-002 6.84629306e-002 -8.42766091e-003
      -9.54160839e-003 3.95795926e-002 2.31687091e-002 -3.98165584e-002
      -2.25890875e-002 -1.21329855e-002 -5.04206978e-002
      -5.59963170e-004 1.54964626e-003 -5.27242497e-002 -9.55400243e-003
      -2.33211238e-002 -2.58259326e-002 -2.13221628e-002
      -4.00134027e-002 -6.42181635e-002 -5.23352511e-002
      -3.23467217e-002 -4.11389582e-002 -7.22772107e-002 4.34650332e-002
      -2.76461150e-002 -4.48542759e-002 -2.39512674e-003
      -2.41799913e-002 -1.81555375e-002 1.84258800e-002 3.67124449e-003
      -6.43893378e-003 3.73082445e-003 -3.64633463e-002 -6.39239997e-002
      -1.23773813e-002 -5.72266697e-004 -1.86524913e-002
      -1.91362295e-002 -3.37927975e-003 -2.15591565e-002
      -4.22540493e-003 -3.05629056e-002 -1.31868655e-002
      -1.63633991e-002 -7.31139584e-003 -4.88471799e-003 3.87636088e-002
      1.90264527e-002 1.20004464e-003 -1.50245372e-002 -4.14562486e-002
      1.45308776e-002 4.76222560e-002 8.33083782e-003 -2.15939153e-002
      -1.62309632e-002 -1.13584828e-002 1.26128802e-002 2.40159985e-002
      -3.01067401e-002 -1.97234843e-002 9.05271329e-004 2.22540982e-002
      4.30373847e-002 2.91240811e-002 2.68504340e-002 4.84509766e-003
      7.78129091e-003 -3.47480513e-002 -3.71671258e-003 5.97160086e-002
      3.44897322e-002 1.95723935e-003 -7.54459947e-003 2.21209228e-002
      3.54670808e-002 4.23508845e-002 1.40500758e-002 -3.63777354e-002
      -1.08321812e-002 -1.82501972e-002 -2.27048267e-002
      -4.00161967e-002 5.07039204e-003 4.95242663e-002 6.03784947e-003
      -5.70112886e-003 2.21303962e-002 1.53894813e-004 -1.32485973e-002
      -2.41130870e-002 -4.67619263e-002 -5.63715063e-002
      -2.21136734e-002 9.21828672e-002 3.86864021e-002 -9.33703780e-003
      3.31623666e-002 2.55377702e-002 -1.93648711e-002 -2.72881929e-002
      2.36989148e-002 3.91774699e-002 6.01793863e-002 5.14638871e-002
      3.73680964e-002 2.74963826e-002 1.99022684e-002 1.33849671e-002
      -2.34480035e-002 -7.60011189e-003 -2.70636263e-003
      -2.74279248e-002 -8.41766887e-004 -3.98927331e-002
      -7.03116432e-002 -6.52944669e-002 -3.53977531e-002
      -2.87902392e-002 -4.87053730e-002 -3.47052701e-002 1.03716021e-002
      -2.93666068e-002 5.04112151e-003 6.91643043e-004 -3.75141925e-003
      2.37415805e-002 -1.44292032e-002 -1.32526616e-002 -3.53011815e-003
      4.80669327e-002 4.41883132e-002 2.67135482e-002 -3.31070609e-002
      -5.27440058e-003 8.13936815e-003 9.33099911e-003 -7.45682651e-003
      -2.38775667e-002 4.46323566e-002 7.07878545e-002 6.56639859e-002
      1.78237949e-002 4.36628945e-002 5.37768416e-002 3.10418177e-002
      -2.48887623e-003 6.99468423e-004 -3.33828256e-002 -4.32342105e-002
      -6.06011376e-002 -4.21202593e-002 -2.99870092e-002
      -1.12856049e-002 6.21902655e-005 -1.70221180e-002 -4.07221466e-002
      6.28389462e-005 1.23423208e-002 -1.71618816e-002 -1.61705017e-002
      -6.67183835e-004 4.08954686e-003 3.71582471e-002 1.83218357e-003
      -1.08698197e-002 7.46669481e-003 -1.78182416e-003 -1.54292956e-002
      1.41615625e-002 2.62202416e-002 -2.73573175e-002 -2.32229419e-002
      -8.92416853e-003 -2.07323935e-002 -4.37883334e-003
      -6.25255471e-003 5.25092371e-002 4.02759900e-003 1.28427381e-002
      5.56565262e-003 2.36153919e-002 9.30858403e-003 -4.67659347e-003
      -9.23410337e-003 1.99440122e-003 -2.14301459e-002 -5.68609536e-002
      -3.10626067e-002 8.94975092e-004 2.65864859e-004 -7.88049400e-003
      -4.17255051e-002 -1.15004256e-002 2.55791340e-002 4.40299548e-002
      -3.00242808e-002 -1.91937014e-002 9.56784002e-003 1.70424152e-002
      1.70224179e-002 5.94098959e-003 6.91677025e-003 -1.32030994e-002
      -2.07784120e-002 1.28331746e-003 -2.05007307e-002 1.69712901e-002
      3.99921462e-002 3.58619317e-002 3.27858562e-003 2.76291501e-002
      3.96985933e-002 5.10594659e-002 3.53633426e-002 4.87253107e-002
      5.98736145e-002 3.58913019e-002 2.40820516e-002 2.15886496e-002
      -6.11962825e-002 -3.00625227e-002 -5.84438145e-002
      -6.18299842e-002 -3.93375196e-002 -3.00882105e-003
      -4.84090997e-003 1.58576276e-002 -2.85086241e-002 -1.15196109e-002
      -1.76286697e-002 -2.59833783e-002 7.76130753e-003 3.52629600e-003
      4.24352139e-002 6.84898160e-003 1.01737333e-002 9.20983125e-003
      -3.16983438e-003 -8.22797045e-003 9.25215613e-003 3.36246938e-002
      1.39313582e-002 3.84796709e-002 3.96458246e-003 1.75091606e-002
      -2.83782110e-002 1.67053118e-002 -1.18242316e-002 5.04328795e-002
      7.66036734e-002 5.73356152e-002 5.57208844e-002 2.33637840e-002
      2.42243204e-002 2.00593118e-002 2.69251727e-002 -1.95182320e-002
      -5.34313507e-002 -1.49085075e-002 -2.75520124e-002
      -1.08737033e-003 -1.44632822e-002 2.79444288e-002 3.29745747e-002
      -1.83943333e-003 5.08690253e-003 -1.45278154e-002 -1.31435748e-002
      -8.77329186e-002 3.76956072e-003 3.37965460e-003 1.36194087e-003
      -4.70276922e-003 4.83864024e-002 -2.00404488e-002 -3.04066036e-002
      -3.29277827e-004 7.52990246e-002 -1.64885614e-002 -7.55225075e-004
      3.28124203e-002 6.68901354e-002 -1.86632364e-003 2.63232104e-002
      -1.82737503e-002 -1.56004177e-002 4.17960845e-002 -1.06606977e-002
      -8.37626308e-003 -3.24803293e-002 -1.09802922e-002 2.86225453e-002
      3.04993764e-002 3.05328909e-002 2.08047498e-002 -3.95174325e-002
      3.53624225e-002 2.50055846e-002 2.57291384e-002 1.85249727e-002
      3.31249088e-002 -6.61910977e-003 -2.14511137e-002 2.26759221e-002
      -1.71693452e-002 2.97934003e-002 -1.19835800e-002 1.10629266e-002
      1.67065561e-002 5.68071241e-003 3.66808027e-002 5.98877948e-003
      1.27113461e-002 4.88981754e-002 -3.13995592e-003 2.80873361e-003
      2.28777435e-002 -7.00606965e-003 -4.69678780e-004 1.16336124e-003
      -5.14073633e-002 2.26792246e-002 7.39052370e-002 3.56861502e-002
      -4.31304276e-002 9.92779247e-003 -4.54609375e-003 3.73889320e-002
      -2.54944786e-002 -7.45415911e-002 -4.83407639e-003
      -2.22676843e-002 -6.78015919e-003 -2.90232766e-002 1.33105889e-002
      4.38635536e-002 2.96597090e-002 1.16327656e-002 2.32116822e-002
      1.02736801e-003 -3.68656367e-002 6.82397373e-003 -3.22156213e-002
      -1.70259699e-002 -3.83656509e-002 1.27982786e-002 -4.87231323e-003
      -9.90507901e-002 -5.99694364e-002 2.71201525e-002 -1.24820629e-002
      -2.93778945e-002 1.42662777e-002 2.12660655e-002 2.42606876e-003
      4.27392200e-002 -1.03655541e-002 -2.48764083e-002 6.17517866e-002
      4.72389273e-002 2.68027298e-002 -1.48801003e-002 -2.71125603e-002
      3.05495202e-003 -9.67349019e-003 -2.56856624e-002 -5.98852970e-002
      -9.19542462e-002 -1.91223342e-002 -4.23779227e-002
      -5.30511253e-002 -4.17877026e-002 6.45584008e-003 1.06267529e-002
      2.03179661e-002 -3.55438655e-003 -4.15530130e-002 5.34737948e-003
      -2.84018554e-002 -3.88705060e-002 -4.39336151e-002
      -3.49242836e-002 -1.87762380e-002 -3.87555547e-002
      -6.41404614e-002 2.56722001e-003 -1.67721696e-002 3.80473444e-004
      -1.35792699e-002 -3.60830985e-002 5.35617722e-003 -8.43837298e-003
      8.61347094e-003 -2.78399438e-002 6.75285980e-002 3.05191986e-002
      4.75045256e-002 9.06882994e-003 -1.03269629e-002 -2.31157392e-002
      -2.93607693e-002 -5.45171462e-002 -3.06101982e-002
      -3.01188659e-002 -1.03043672e-002 -1.77984815e-002
      -1.75977685e-002 -4.42640036e-002 -1.94176808e-002
      -3.19208205e-002 1.11934282e-002 -2.77343560e-002 -1.52007118e-002
      1.99992340e-002 1.22779817e-003 -1.53208105e-002 -1.69426929e-002
      5.85604459e-003 -3.60600464e-002 -3.45155001e-002 -4.85706702e-002
      5.86093329e-002 3.41508305e-003 1.23336203e-002 -3.46937124e-003
      -2.68361042e-003 -1.63491641e-003 2.52039265e-002 1.63972806e-002
      -3.89142870e-003 9.59640890e-002 2.62243263e-002 1.14391679e-002
      1.04852216e-002 -2.20986046e-002 -5.82477450e-002 -7.96436667e-002
      -7.89491832e-002 -7.28323013e-002 -6.95116296e-002 5.15471958e-003
      2.19336320e-002 2.30113231e-002 -4.06373367e-002 5.89805283e-003
      -1.14595806e-002 -2.05535665e-002 1.16318380e-002 -3.30812857e-003
      1.88818853e-002 -7.14573264e-003 2.45050236e-004 1.22696310e-002
      7.77403871e-003 6.65170047e-003 -1.00717731e-002 -2.68899146e-002
      3.98008488e-002 -1.20867025e-002 -3.45394909e-002 -5.07175922e-003
      -1.97435860e-002 2.22155359e-002 3.15109007e-002 7.21844006e-003
      5.58702322e-003 8.09585452e-002 -9.66981892e-003 -1.31199965e-002
      3.67405377e-002 1.54176103e-002 -8.57338309e-002 -4.11378853e-002
      -5.45462705e-002 2.49392744e-002 -5.82981557e-002 -6.00411277e-003
      -1.31545262e-002 -3.72562045e-003 -6.42847791e-002 1.11049674e-002
      -4.33979277e-003 2.42485236e-002 2.05192324e-002 -2.16787029e-002
      -2.64623854e-003 -1.06039029e-002 -2.90541328e-003 2.88356910e-003
      -1.61733162e-002 1.78938644e-004 -8.73096287e-003 3.67789641e-002
      2.95392759e-002 -7.46900216e-003 -6.89451303e-003 4.30940986e-002
      -1.35357119e-002 5.47658689e-002 2.05996315e-004 8.04100558e-003
      2.16603670e-002 5.89537323e-002 -7.72231864e-003 -1.47696482e-002
      1.99206211e-002 5.15502207e-002</_></support_vectors>
  <decision_functions>
    <_>
      <sv_count>1</sv_count>
      <rho>-2.2783317184448242e+000</rho>
      <alpha>
        1.</alpha>
      <index>
        0</index></_></decision_functions></my_svm>
</opencv_storage>
